PORTED FUNCs LIST (49 of 50):

  cv::HOGDescriptor::HOGDescriptor(Size _winSize, Size _blockSize, Size _blockStride, Size _cellSize, int _nbins, int _derivAperture = 1, double _winSigma = -1, HOGDescriptor_HistogramNormType _histogramNormType = HOGDescriptor::L2Hys, double _L2HysThreshold = 0.2, bool _gammaCorrection = false, int _nlevels = HOGDescriptor::DEFAULT_NLEVELS, bool _signedGradient = false)
  cv::HOGDescriptor::HOGDescriptor(String filename)
  cv::HOGDescriptor::HOGDescriptor()
 bool cv::HOGDescriptor::checkDetectorSize()
 bool cv::HOGDescriptor::load(String filename, String objname = String())
 double cv::HOGDescriptor::getWinSigma()
 size_t cv::HOGDescriptor::getDescriptorSize()
static vector_float cv::HOGDescriptor::getDaimlerPeopleDetector()
static vector_float cv::HOGDescriptor::getDefaultPeopleDetector()
 void cv::HOGDescriptor::compute(Mat img, vector_float& descriptors, Size winStride = Size(), Size padding = Size(), vector_Point locations = std::vector<Point>())
 void cv::HOGDescriptor::computeGradient(Mat img, Mat& grad, Mat& angleOfs, Size paddingTL = Size(), Size paddingBR = Size())
 void cv::HOGDescriptor::detect(Mat img, vector_Point& foundLocations, vector_double& weights, double hitThreshold = 0, Size winStride = Size(), Size padding = Size(), vector_Point searchLocations = std::vector<Point>())
 void cv::HOGDescriptor::detectMultiScale(Mat img, vector_Rect& foundLocations, vector_double& foundWeights, double hitThreshold = 0, Size winStride = Size(), Size padding = Size(), double scale = 1.05, double finalThreshold = 2.0, bool useMeanshiftGrouping = false)
 void cv::HOGDescriptor::save(String filename, String objname = String())
 void cv::HOGDescriptor::setSVMDetector(Mat svmdetector)
Size HOGDescriptor::winSize
Size HOGDescriptor::blockSize
Size HOGDescriptor::blockStride
Size HOGDescriptor::cellSize
int HOGDescriptor::nbins
int HOGDescriptor::derivAperture
double HOGDescriptor::winSigma
HOGDescriptor_HistogramNormType HOGDescriptor::histogramNormType
double HOGDescriptor::L2HysThreshold
bool HOGDescriptor::gammaCorrection
vector_float HOGDescriptor::svmDetector
int HOGDescriptor::nlevels
bool HOGDescriptor::signedGradient
  cv::QRCodeDetector::QRCodeDetector()
 bool cv::QRCodeDetector::decodeMulti(Mat img, Mat points, vector_string& decoded_info, vector_Mat& straight_qrcode = vector_Mat())
 bool cv::QRCodeDetector::detect(Mat img, Mat& points)
 bool cv::QRCodeDetector::detectAndDecodeMulti(Mat img, vector_string& decoded_info, Mat& points = Mat(), vector_Mat& straight_qrcode = vector_Mat())
 bool cv::QRCodeDetector::detectMulti(Mat img, Mat& points)
 string cv::QRCodeDetector::decode(Mat img, Mat points, Mat& straight_qrcode = Mat())
 string cv::QRCodeDetector::detectAndDecode(Mat img, Mat& points = Mat(), Mat& straight_qrcode = Mat())
 void cv::QRCodeDetector::setEpsX(double epsX)
 void cv::QRCodeDetector::setEpsY(double epsY)
  cv::CascadeClassifier::CascadeClassifier(String filename)
  cv::CascadeClassifier::CascadeClassifier()
 Size cv::CascadeClassifier::getOriginalWindowSize()
static bool cv::CascadeClassifier::convert(String oldcascade, String newcascade)
 bool cv::CascadeClassifier::empty()
 bool cv::CascadeClassifier::isOldFormatCascade()
 bool cv::CascadeClassifier::load(String filename)
 int cv::CascadeClassifier::getFeatureType()
 void cv::CascadeClassifier::detectMultiScale(Mat image, vector_Rect& objects, double scaleFactor = 1.1, int minNeighbors = 3, int flags = 0, Size minSize = Size(), Size maxSize = Size())
 void cv::CascadeClassifier::detectMultiScale(Mat image, vector_Rect& objects, vector_int& numDetections, double scaleFactor = 1.1, int minNeighbors = 3, int flags = 0, Size minSize = Size(), Size maxSize = Size())
 void cv::CascadeClassifier::detectMultiScale(Mat image, vector_Rect& objects, vector_int& rejectLevels, vector_double& levelWeights, double scaleFactor = 1.1, int minNeighbors = 3, int flags = 0, Size minSize = Size(), Size maxSize = Size(), bool outputRejectLevels = false)
 void cv::groupRectangles(vector_Rect& rectList, vector_int& weights, int groupThreshold, double eps = 0.2)

SKIPPED FUNCs LIST (1 of 50):

 bool cv::CascadeClassifier::read(FileNode node)
// Unknown type 'FileNode' (I), skipping the function


0 def args - 22 funcs
1 def args - 5 funcs
2 def args - 3 funcs
3 def args - 1 funcs
4 def args - 1 funcs
5 def args - 2 funcs
6 def args - 2 funcs
7 def args - 1 funcs